net
{
	propagationenginegenerator1791944048146838126L = "edu.ucla.belief.approx.BeliefPropagationSettings@49239de6";
	recoveryenginegenerator6944530267470113528l = "edu.ucla.util.SettingsImpl@164c8469";
	node_size = (130.0 55.0);
	huginenginegenerator3061656038650325130L = "edu.ucla.belief.inference.JoinTreeSettings@66867263";
}

node PaymentHistory
{
	states = ("Excellent" "Acceptable" "Unacceptable" );
	position = (360 -199);
	DSLxEXTRA_DEFINITIONxMANDATORY = "false";
	diagnosistype = "AUXILIARY";
	label = "Payment History";
	DSLxPOSITIONxWIDTH = "93";
	DSLxEXTRA_DEFINITIONxDIAGNOSIS_TYPE = "AUXILIARY";
	excludepolicy = "include whole CPT";
	DSLxTYPE = "CPT";
	DSLxPOSITIONxHEIGHT = "30";
	DSLxEXTRA_DEFINITIONxRANKED = "false";
	ismapvariable = "false";
	ID = "PaymentHistory";
}
node CreditWorthiness
{
	states = ("Positive" "Negative" );
	position = (239 -350);
	DSLxEXTRA_DEFINITIONxMANDATORY = "false";
	diagnosistype = "AUXILIARY";
	label = "Credit Worthiness";
	DSLxPOSITIONxWIDTH = "100";
	DSLxEXTRA_DEFINITIONxDIAGNOSIS_TYPE = "AUXILIARY";
	excludepolicy = "include whole CPT";
	DSLxTYPE = "CPT";
	DSLxPOSITIONxHEIGHT = "30";
	DSLxEXTRA_DEFINITIONxRANKED = "false";
	ismapvariable = "false";
	ID = "CreditWorthiness";
}
node Age
{
	states = ("Between16and21" "Between22and64" "Over65" );
	position = (452 -85);
	DSLxEXTRA_DEFINITIONxMANDATORY = "false";
	diagnosistype = "AUXILIARY";
	label = "Age";
	DSLxPOSITIONxWIDTH = "70";
	DSLxEXTRA_DEFINITIONxDIAGNOSIS_TYPE = "AUXILIARY";
	excludepolicy = "include whole CPT";
	DSLxTYPE = "CPT";
	DSLxPOSITIONxHEIGHT = "30";
	DSLxEXTRA_DEFINITIONxRANKED = "false";
	ismapvariable = "false";
	ID = "Age";
}
node FutureIncome
{
	states = ("Promising" "Not_promising" );
	position = (54 -262);
	DSLxEXTRA_DEFINITIONxMANDATORY = "false";
	diagnosistype = "AUXILIARY";
	label = "Future Income";
	DSLxPOSITIONxWIDTH = "90";
	DSLxEXTRA_DEFINITIONxDIAGNOSIS_TYPE = "AUXILIARY";
	excludepolicy = "include whole CPT";
	DSLxTYPE = "CPT";
	DSLxPOSITIONxHEIGHT = "30";
	DSLxEXTRA_DEFINITIONxRANKED = "false";
	ismapvariable = "false";
	ID = "FutureIncome";
}
node Assets
{
	states = ("High" "Medium" "Low" );
	position = (141 -174);
	DSLxEXTRA_DEFINITIONxMANDATORY = "false";
	diagnosistype = "AUXILIARY";
	label = "Assets";
	DSLxPOSITIONxWIDTH = "70";
	DSLxEXTRA_DEFINITIONxDIAGNOSIS_TYPE = "AUXILIARY";
	excludepolicy = "include whole CPT";
	DSLxTYPE = "CPT";
	DSLxPOSITIONxHEIGHT = "30";
	DSLxEXTRA_DEFINITIONxRANKED = "false";
	ismapvariable = "false";
	ID = "Worth";
}
node Income
{
	states = ("High" "Medium" "Low" );
	position = (-45 -170);
	DSLxEXTRA_DEFINITIONxMANDATORY = "false";
	diagnosistype = "AUXILIARY";
	label = "Income";
	DSLxPOSITIONxWIDTH = "83";
	DSLxEXTRA_DEFINITIONxDIAGNOSIS_TYPE = "AUXILIARY";
	excludepolicy = "include whole CPT";
	DSLxTYPE = "CPT";
	DSLxPOSITIONxHEIGHT = "30";
	DSLxEXTRA_DEFINITIONxRANKED = "false";
	ismapvariable = "false";
	ID = "Profession";
}
node DebtIncomeRatio
{
	states = ("Low" "High" );
	position = (244 -52);
	DSLxEXTRA_DEFINITIONxMANDATORY = "false";
	diagnosistype = "AUXILIARY";
	label = "Ratio of Debts To Income";
	DSLxPOSITIONxWIDTH = "81";
	DSLxEXTRA_DEFINITIONxDIAGNOSIS_TYPE = "AUXILIARY";
	excludepolicy = "include whole CPT";
	DSLxTYPE = "CPT";
	DSLxPOSITIONxHEIGHT = "30";
	DSLxEXTRA_DEFINITIONxRANKED = "false";
	ismapvariable = "false";
	ID = "RatioDebInc";
}
node Reliability
{
	states = ("Reliable" "Unreliable" );
	position = (432 -286);
	DSLxEXTRA_DEFINITIONxMANDATORY = "false";
	diagnosistype = "AUXILIARY";
	label = "Reliability";
	DSLxPOSITIONxWIDTH = "70";
	DSLxEXTRA_DEFINITIONxDIAGNOSIS_TYPE = "AUXILIARY";
	excludepolicy = "include whole CPT";
	DSLxTYPE = "CPT";
	DSLxPOSITIONxHEIGHT = "30";
	DSLxEXTRA_DEFINITIONxRANKED = "false";
	ismapvariable = "false";
	ID = "Reliability";
}
potential ( PaymentHistory | Age DebtIncomeRatio )
{
	data = (((	0.3333333333333333	0.3333333333333333	0.3333333333333333	)
		(	0.2	0.4	0.4	))
		((	0.4	0.3	0.3	)
		(	0.3684210526315789	0.3157894736842105	0.3157894736842105	))
		((	0.6	0.2	0.2	)
		(	0.42857142857142855	0.2857142857142857	0.2857142857142857	)));
}
potential ( CreditWorthiness | Reliability FutureIncome DebtIncomeRatio )
{
	data = ((((	0.95	0.05	)
		(	0.9	0.1	))
		((	0.8	0.2	)
		(	0.75	0.25	)))
		(((	0.45	0.55	)
		(	0.4	0.6	))
		((	0.3	0.7	)
		(	0.2	0.8	))));
}
potential ( Age | )
{
	data = (	0.3333333333333333	0.3333333333333333	0.3333333333333333	);
}
potential ( FutureIncome | Income Assets )
{
	data = (((	0.95	0.05	)
		(	0.9	0.1	)
		(	0.8	0.2	))
		((	0.6	0.4	)
		(	0.5	0.5	)
		(	0.4	0.6	))
		((	0.3	0.7	)
		(	0.2	0.8	)
		(	0.1	0.9	)));
}
potential ( Assets | Income )
{
	data = ((	0.7	0.2	0.1	)
		(	0.3333333333333333	0.3333333333333333	0.3333333333333333	)
		(	0.1	0.3	0.6	));
}
potential ( Income | )
{
	data = (	0.3333333333333333	0.3333333333333333	0.3333333333333333	);
}
potential ( DebtIncomeRatio | )
{
	data = (	0.5	0.5	);
}
potential ( Reliability | PaymentHistory Age )
{
	data = (((	0.7	0.3	)
		(	0.85	0.15	)
		(	0.9	0.1	))
		((	0.4	0.6	)
		(	0.5	0.5	)
		(	0.6	0.4	))
		((	0.1	0.9	)
		(	0.2	0.8	)
		(	0.25	0.75	)));
}
